{"layers":[ {"layer_type":"input", "out_depth":5, "out_sx":1, "out_sy":1}, {"layer_type":"fc", "out_depth":20, "out_sx":1, "out_sy":1, "num_inputs":5, "l1_decay_mul":0, "l2_decay_mul":1, "filters":[ {"sx":1, "sy":1, "depth":5, "w":[ 0.996616958501324, 1.32371428875728, -0.0121749712574066, 0.0276289298021416, -1.04918952356656 ]}, {"sx":1, "sy":1, "depth":5, "w":[ 2.04302501168554, -1.61149556827996, -0.068987666461493, -0.219108587781627, -2.0375600243198 ]}, {"sx":1, "sy":1, "depth":5, "w":[ -0.335581824224638, 0.164664782359491, -0.861256905818486, -0.266615033856906, 0.250888531567979 ]}, {"sx":1, "sy":1, "depth":5, "w":[ -0.192108819155212, -0.165301706530033, -0.332287916643986, 0.22343602694878, 0.502583359179452 ]}, {"sx":1, "sy":1, "depth":5, "w":[ 0.54508875815984, 0.713197208624864, -0.629152201303095, -0.5318933983976, -0.578371692607464 ]}, {"sx":1, "sy":1, "depth":5, "w":[ -0.025996732150865, 0.870346879248784, -0.309223287431754, 0.939156449820641, 0.624348526221555 ]}, {"sx":1, "sy":1, "depth":5, "w":[ -0.671633870749768, -0.51374010281543, -0.510337125443977, 0.745029294769435, 0.296937330127941 ]}, {"sx":1, "sy":1, "depth":5, "w":[ 0.645688648708858, 0.522843373684135, 0.247553867193428, -0.43243823757621, -0.469622894779927 ]}, {"sx":1, "sy":1, "depth":5, "w":[ 0.661281009113061, -0.188407506411727, 0.534771441032913, -0.602175294645542, 0.356802457584269 ]}, {"sx":1, "sy":1, "depth":5, "w":[ -1.18713453657348, 0.54212548945735, -0.00552576220004645, 0.143168118923827, 1.05438034694759 ]}, {"sx":1, "sy":1, "depth":5, "w":[ -0.974006048086608, 0.0937910708643427, 0.251154863362132, 0.0276053635115697, 0.924877235575082 ]}, {"sx":1, "sy":1, "depth":5, "w":[ 0.567415672428485, 0.997781326775753, 0.0445798875122045, 0.455453863112703, -0.817519345190349 ]}, {"sx":1, "sy":1, "depth":5, "w":[ 1.31501898715251, 0.991267205537676, -0.0449771288353501, -0.185862812838572, -1.198952682797 ]}, {"sx":1, "sy":1, "depth":5, "w":[ -0.312303138279351, -0.62520483799912, -0.411423549080714, 0.508121133313103, -0.447267577683526 ]}, {"sx":1, "sy":1, "depth":5, "w":[ 0.893204760114565, 0.195635957567405, -0.531066387140248, 0.472782787478129, -0.570194444056658 ]}, {"sx":1, "sy":1, "depth":5, "w":[ -0.0255187394878348, 0.36353162408795, -0.232159231764403, 0.341134860912272, 0.380654775503148 ]}, {"sx":1, "sy":1, "depth":5, "w":[ -0.411842025023149, -0.0504762511141486, 0.199501786565949, -0.00244004561333482, -0.360839220529439 ]}, {"sx":1, "sy":1, "depth":5, "w":[ -0.913601437383947, 0.201210687899971, 0.366816163256921, 0.473966130148314, -0.783557253413307 ]}, {"sx":1, "sy":1, "depth":5, "w":[ 0.189366204224745, -0.0145236889700127, -0.126932294152038, 0.704631054059505, 0.165783627650042 ]}, {"sx":1, "sy":1, "depth":5, "w":[ 0.79025632478936, 0.767203131413154, 0.147649156608882, 0.51460850522234, -1.08491316352005 ]} ], "biases":{"sx":1, "sy":1, "depth":20, "w":[ -1.08239374268585, 1.66736420913191, 0.286735348334991, 0.0983512014441108, -0.223538206902281, -0.434560185415231, 0.108910613871161, -0.115903666385288, 0.418064060598676, -0.0679313202809589, 0.192701597348678, -0.510492007566746, -0.691158985737689, 0.0642081355360916, -0.0879483702705738, -0.0395960173846124, 0.0638499859109807, 0.858358877354436, -0.0292022587786147, -0.259882844633435 ]}}, {"layer_type":"relu", "out_depth":20, "out_sx":1, "out_sy":1}, {"layer_type":"fc", "out_depth":20, "out_sx":1, "out_sy":1, "num_inputs":20, "l1_decay_mul":0, "l2_decay_mul":1, "filters":[ {"sx":1, "sy":1, "depth":20, "w":[ -0.338216007708229, -0.0522610828124193, 0.508869332523079, 0.0633996922366732, 0.00416089173588174, -0.251194556987721, -0.13073600292176, 0.196249180258619, 0.0872957045454628, -0.300771019103674, -0.0137959664942588, 0.0384487436420192, 0.459078234267089, 0.0494426405598733, -0.254184708881462, -0.0763396684613542, -0.115421302574281, 0.00330648520950802, -0.33592524346758, 0.118267084579473 ]}, {"sx":1, "sy":1, "depth":20, "w":[ 0.191287243726837, -0.752309077206095, 0.133043965268367, -0.135562742183148, 0.0437453786999223, 0.394552531344352, -0.624237401414147, 0.127330848284419, 0.105252628702113, 0.105950949861335, -0.049642548739145, 0.0067677951690487, 0.0970918200077276, 0.035765721969567, 0.379259237370308, 0.338159085071466, -0.216768620017158, 0.143493022083941, -0.106651462103439, 0.39390249830857 ]}, {"sx":1, "sy":1, "depth":20, "w":[ -0.628677591974274, 0.46710098118112, 0.34848572503876, 0.123574055968334, -0.0579317946416338, -0.484431771577152, -0.202686942908682, -0.186223442871326, 0.326827590745314, 0.636163159390903, 0.46766925250453, -0.771778512456903, 0.0222144486997438, -0.258802461224516, 0.0408312569707945, 0.341831871821217, 0.0520229042772036, 0.14351137779742, -0.386124858938722, -0.539456566731765 ]}, {"sx":1, "sy":1, "depth":20, "w":[ -0.288097917925106, -0.0806104326534097, -0.16237488781527, -0.55625683631057, 0.104524235011931, -0.308819717905367, -0.229270171351265, 0.225547203835269, -0.265790964252967, -0.145564013808897, 0.20294591620436, -0.187797961869199, -0.111032874747227, -0.407791261049246, -0.248331802617494, 0.492159093650153, -0.141891153100615, 0.0625394212312612, -0.195062577281985, 0.19376945847326 ]}, {"sx":1, "sy":1, "depth":20, "w":[ 0.332096656062669, -0.192146686387314, -0.047605112942232, -0.0567744022671574, 0.185506837657661, -0.302828582116123, 0.428285806946702, -0.449322151959744, -0.278026203970403, 0.29060667522954, 0.0541879081638094, -0.129604487629633, -0.0862928459559607, -0.366731680553814, 0.27135725908875, -0.301818020501588, -0.0379453646020442, -0.105239745360546, -0.250474948063005, -0.289207780383703 ]}, {"sx":1, "sy":1, "depth":20, "w":[ 0.404075267966572, -0.449572162990732, -0.0395548165544487, -0.249569559681485, -0.0497201939777311, 0.0688857616049381, -0.483970760933244, 0.513787846611333, 0.0267537071268607, -0.00559495982775961, -0.134347574146253, 0.27665610491049, 0.711238854237813, 0.00617922741099826, 0.477352868221967, 0.177727848926966, 0.0228422697642065, 0.386388933945563, 0.261004694120282, -0.0391184579006118 ]}, {"sx":1, "sy":1, "depth":20, "w":[ 0.270772049438521, -0.309481178245283, 0.111427022708413, 0.0994937559186978, -0.0742584648176644, -0.0188859523565607, 0.172618321810995, 0.324838426780291, 0.0906232540332853, -0.0768136162510673, -0.0792133588550184, 0.249421240331276, 0.0799407995336027, 0.271728017180497, 0.252101339545298, -0.249452232299417, 0.0127043107183469, -0.129857282846177, -0.289978904724745, 0.013643836913184 ]}, {"sx":1, "sy":1, "depth":20, "w":[ 0.012576568758043, -1.23164703235477, 0.292500222550536, 0.361347673738348, 0.321808657262486, 0.472513802473833, -0.200700657610767, 0.168528104933719, -0.143595505665966, 0.149680386718173, 0.0380491777592976, -0.165237992215212, 0.310068826252654, 0.301270290323543, -0.129637400947905, -0.695401806837728, -0.0781155732874042, 0.124791791908395, 0.177753715847176, 0.133005895072292 ]}, {"sx":1, "sy":1, "depth":20, "w":[ 1.02942384320337, 0.462686966620815, -0.354684496613596, -0.115806919363782, -0.192321643720793, 0.0473332109728403, -0.0322848494079798, 0.402312353181885, -0.289488613722066, -0.419237911559687, -0.412175698823089, 0.540638896338428, 0.554196407935722, -0.0361412112031614, 0.438065598629804, -0.527576828676377, -0.133786170919786, -0.185994412778167, -0.0541206321971388, 0.298092676623223 ]}, {"sx":1, "sy":1, "depth":20, "w":[ -0.166313790884294, 0.648384605245035, -0.458467301619173, -0.0754720023804984, -0.247166103353689, 0.148230364535353, 0.215376567897062, -0.0458273725174312, 0.117962295850379, 0.315813239670937, 0.194175169529297, -0.149742184930126, 0.157483235465824, 0.331390306045705, 0.00339472538777424, 0.103552754208735, 0.0366727629364997, -0.130088592873977, 0.238325056482181, 0.0201554509679523 ]}, {"sx":1, "sy":1, "depth":20, "w":[ -0.0666199744698312, -0.121675388378004, 0.219122354888576, 0.224196525353626, 0.121976793756272, 0.343466509183397, 0.0141420163923112, 0.361412238845329, 0.0161117965369439, 0.204532702929242, 0.26226568596935, -0.150776816252443, 0.0319099930919682, -0.183345426510798, -0.149918539211312, 0.0442771993101452, 0.273417607012659, -0.00190404058821617, -0.364806765693949, -0.00594493076087418 ]}, {"sx":1, "sy":1, "depth":20, "w":[ 0.496174898198979, -0.0430835851383388, -0.227669088080042, -0.0213083535907252, 0.281438059558558, 0.230973880684007, -0.103803701909821, -0.0512312663070232, 0.114484471483453, -0.145650008298187, -0.316179535989091, 0.0700707720880348, 0.151288469290378, -0.0306655869795505, -0.0417766246561847, 0.170482802828986, 0.25589301791545, 0.0542619151669844, 0.558488445781733, 0.379153881826438 ]}, {"sx":1, "sy":1, "depth":20, "w":[ 0.0114811941160708, -1.25947847562566, -0.27669850701183, 0.13249912956684, -0.628766922630027, -0.124632180006187, -0.523569850857542, 0.18521181858556, 0.823195057509756, -0.122103742234888, -0.0743901660926312, -0.177603569956329, 0.108984304754931, 0.0661205723186359, 0.172204140066633, 0.386532807469742, -0.30175826255449, 0.437141031226461, -0.235261572694857, -0.286747112300651 ]}, {"sx":1, "sy":1, "depth":20, "w":[ 0.120985349848319, 0.853333482456332, -0.0163413843865119, -0.335355868070917, 0.571828432970971, -0.372065344051472, -0.0463594021937484, 0.538965669917445, 0.247724761219213, -0.861269266082584, -0.668060020522703, -0.159456237458847, 0.695643684957973, -0.093728634691966, 0.410642244299339, -0.400461350540446, 0.204569639671278, -0.189867848710203, 0.00175512768605177, 0.607685006803466 ]}, {"sx":1, "sy":1, "depth":20, "w":[ 0.0494956386094361, -0.0270223784784563, 0.00898538931514047, -0.148713794912266, -0.0196810816176695, -0.106147978861847, -0.00349096468473297, 0.00602445593527626, -0.281133037105181, 0.295570981252292, -0.221785328032656, -0.292027367230093, -0.256238536548868, 0.276158289477533, -0.188704296095566, 0.211428186553092, -0.0414959520563342, 0.282785925104136, -0.390514327913271, -0.236223516687087 ]}, {"sx":1, "sy":1, "depth":20, "w":[ 0.136604876051653, 0.148397539774635, -0.271011088401614, 0.185329761489377, 0.0541546166866917, 0.0561325529991906, -0.190688870814011, 0.242668317497474, -0.13690812251456, 0.563785404127056, 0.151895636531367, 0.664542715768324, 0.2670631158547, -0.267828415346238, -0.615529088364888, 0.0839038160334298, -0.0568707045252653, -0.237591976047534, -0.217143958997655, 0.15774533627619 ]}, {"sx":1, "sy":1, "depth":20, "w":[ 0.15491915504877, -0.695366586524982, 0.489972140116657, 0.10481817999716, -0.408263482338186, 0.358065846959654, -0.169549999144986, -0.112872446171147, 0.173270384229407, 0.0309756603316362, 0.331858369586818, 0.113222929230484, 0.429240640218702, 0.0327804798629317, 0.151638709597554, 0.213557762885574, 0.152597732982256, 0.35152789218896, 0.415786216764693, -0.304988896386786 ]}, {"sx":1, "sy":1, "depth":20, "w":[ -0.142957351281117, -0.0436013018292065, 0.12346619814631, -0.213169687917439, -0.532389119554005, -0.065205962024057, -0.0499324826133535, 0.174302280288364, -0.110418784624286, -0.0196190000090974, 0.108261501947429, -0.324186438296355, 0.061667786083879, 0.196002165915496, -0.189493855129154, -0.245846306087679, 0.413244433109014, 0.550691339823276, 0.508756280160143, -0.0242927977150076 ]}, {"sx":1, "sy":1, "depth":20, "w":[ -0.876217378380425, 0.932902066553317, 0.454554577656278, 0.381971035867174, -0.28987741304784, 0.220663550710133, 0.0015375385449921, -0.4275381061068, 0.197840812624191, 0.500397851135257, 0.537165637583899, -0.813035537042057, -1.086604473791, -0.128216264492122, -0.596303814252571, -0.18554291087972, -0.13032416569843, 0.364538511627913, 0.0851322075212632, -1.03800049272638 ]}, {"sx":1, "sy":1, "depth":20, "w":[ 0.41923555850038, 0.296754869886202, 0.262723575325233, 0.104154091653841, -0.295400305900469, 0.325942203146885, 0.28002097638372, -0.0446110174913083, 0.261144546873876, 0.0673979408624471, -0.00826760658199905, -0.20235521167882, 0.343067927584844, 0.391364428800422, -0.013754918199194, -0.0748316063990811, 0.191635491834163, 0.0639607692347628, 0.139876104808597, 0.12569838392957 ]} ], "biases":{"sx":1, "sy":1, "depth":20, "w":[ 0.192880435986882, 0.325304495762732, 0.22203633123945, 0.0570237699131488, 0.153152250065097, 0.15442190623718, 0.202776654151453, 0.0817446274623409, -0.34956624829731, 0.0664235356428651, 0.104532292728811, 0.0936316097899021, 0.185724790029294, 0.179095003493155, 0.0147751655398257, -0.141930251829788, 0.182171744849363, 0.136059828283875, 0.730079221815716, 0.0182120437540144 ]}}, {"layer_type":"relu", "out_depth":20, "out_sx":1, "out_sy":1}, {"layer_type":"fc", "out_depth":20, "out_sx":1, "out_sy":1, "num_inputs":20, "l1_decay_mul":0, "l2_decay_mul":1, "filters":[ {"sx":1, "sy":1, "depth":20, "w":[ -0.12129725164536, 0.093195588668225, -0.318965441623983, 0.435100259183268, 0.0389958897731099, -0.531673368359017, 0.227171625875428, 0.154575749615187, -0.0675106694252701, 0.365916568509822, -0.0300425557038453, -0.050547280336812, -0.101060164848932, 0.0933226239750545, 0.0687188597383355, 0.00394868700223989, -0.122245401249818, 0.301461846511123, -0.186480698271739, 0.335469901815948 ]}, {"sx":1, "sy":1, "depth":20, "w":[ -0.142554560539885, -0.0422375715352528, 0.190610687994729, 0.211254997425202, -0.305440708735144, -0.555544232107907, 0.275168364066628, 0.134709112539181, 0.0101069460473636, -0.0837906441631149, -0.132484392237482, -0.0448931550059582, 0.0159021222217987, -0.243610382717416, -0.0721222449854127, 0.199274541495941, -0.0287031293643814, -0.309706903251333, 0.170602939085508, 0.380015955220929 ]}, {"sx":1, "sy":1, "depth":20, "w":[ 0.0356374451513234, -0.232813582729144, -0.351692292799138, 0.388094905688144, 0.0335317123201849, -0.384425502250363, 0.200904978995187, -0.285056150785844, 0.0909255272726852, 0.242943430668591, -0.223452327049641, 0.149139603665725, -0.252140019716294, 0.397196674405109, -0.224198868161783, -0.338061113426833, 0.0961701245636303, 0.170337483659342, 0.416708855138807, -0.0494119013298619 ]}, {"sx":1, "sy":1, "depth":20, "w":[ -0.722287018613747, 0.0155991710866598, -0.61258858599488, 0.207745489333756, 0.211725984707134, 0.624364363018195, 0.162477549379847, 0.00627583960990542, -0.108485905925994, 0.305691600180253, -0.0229136950865814, 0.581980631272744, 0.263414461468329, -0.422709302043598, 0.479273215951308, -0.367481866784397, 0.406860490142516, -0.00123054170183753, -0.794056860128712, 0.410978234102897 ]}, {"sx":1, "sy":1, "depth":20, "w":[ 0.192155455931136, 0.421855847418842, -0.078949753063835, 0.242688809319451, 0.084396138090194, 0.0117769380208898, -0.243153434029897, -0.119047053917609, -0.404878746007833, 0.00807197777191773, -0.264208155187062, 0.196620870124766, 0.218010351883859, -0.472179017878967, 0.0486579071666589, 0.0759048577021847, 0.29878515062215, 0.0224989690337584, -0.836885790297424, 0.00995463146246868 ]}, {"sx":1, "sy":1, "depth":20, "w":[ 0.509269247026002, 0.0811890146910177, 0.454351776138964, 0.0203309088596086, -0.121119623748495, -0.156000115363031, -0.288518697602218, 0.44859869021548, 0.301641205158498, 0.092971879020169, 0.33381293108145, 0.00971874297095998, -0.170206025369526, 0.287196190724869, 0.202684731502061, 0.0319944920437684, -0.452612506342127, 0.0926244102755163, 0.348059270330416, 0.316177346096625 ]}, {"sx":1, "sy":1, "depth":20, "w":[ -0.117534138526956, -0.0685095512362498, 0.310993715880352, -0.126312306008479, -0.363272027953126, -0.472357545366714, -0.229973499381045, 0.203540405524922, -0.0937269874717226, 0.0554147688413021, -0.131365462194247, -0.0488590433933947, -0.155874012504769, 0.031105914505788, -0.171944529523081, 0.0292196312711346, 0.106501896463976, -0.144647323448882, 0.204194818307159, 0.0647062781251898 ]}, {"sx":1, "sy":1, "depth":20, "w":[ -0.229466206908858, -0.0616362189926439, -0.313135198940048, 0.292515044141889, 0.0173034788373878, 0.278159299921613, -0.144069450358583, -0.016721140995473, 0.346983192528455, 0.19003047902644, -0.32261440372741, 0.0409027113488399, -0.304752235194361, -0.18100718445466, 0.381695086416867, 0.134696929999585, -0.0926996619907024, -0.316914522556583, 0.594237529109939, 0.247666251414365 ]}, {"sx":1, "sy":1, "depth":20, "w":[ 0.353150116166293, 0.442382551406852, -0.35692367024782, 0.268213963096416, -0.4184278584503, 0.184152719726637, 0.00886648675607895, 0.387534339104518, -0.657807672386577, 0.0909364554549461, 0.00663524929853955, -0.0603221908627407, -0.0432213725210974, -0.0957323217246656, 0.031681871177333, -0.123860437125378, -0.0857471321290047, 0.0550986841911377, -0.502350683700279, -0.273849712287149 ]}, {"sx":1, "sy":1, "depth":20, "w":[ -0.289120897373148, -0.246592505595073, 0.258443210326545, 0.122900069987567, 0.103194232804008, 0.520056076569135, -0.106855564203041, -0.384317055970258, 0.171351446589069, -0.0704162739205868, 0.149849770458401, 0.36552129880402, -0.274905036038452, 0.483664863771455, 0.542828872799223, 0.310915641422726, -0.180438258986743, 0.301198680834924, -0.0736247081980035, -0.0337586904398722 ]}, {"sx":1, "sy":1, "depth":20, "w":[ 0.185079147282257, -0.0698863452436574, 0.115990759404622, -0.127835360129246, -0.126047085438131, -0.0217359256602383, 0.212659506220672, -0.000553631357760284, 0.0465963623781667, 0.0194347610311595, -0.0820532876285861, -0.134137247733345, 0.036302213544537, -0.0287304000026753, -0.381510142534517, 0.127405763111259, 0.216868001047552, -0.219311780997386, -0.257479287594592, 0.035801818887328 ]}, {"sx":1, "sy":1, "depth":20, "w":[ -0.27083171941475, 0.47866851643596, 0.368956733905174, -0.0122286788584369, 0.00208811929048889, -0.0449955456073367, -0.311762044554357, -0.0524236705357771, -0.0766972174028027, -0.430036256796845, 0.102932548375161, 0.0148138047994574, 0.0616086408295716, -0.166638516766807, 0.247444008990514, -0.494669386362499, 0.0228174416714537, -0.274000261502248, -0.0412837253051645, -0.440679112203299 ]}, {"sx":1, "sy":1, "depth":20, "w":[ -0.289332205778156, 0.365852718478262, -0.527035504367203, -0.184555719137351, 0.299304148794667, 0.314844605984691, -0.142669279382521, 0.423894656555008, -1.03577078067754, 0.162064425518172, 0.376876070073751, 0.0434026149930351, 0.396658064406401, -0.733848353253667, 0.235822540854722, -0.363484596418283, 0.640376985005912, 0.394022878828873, -0.999764591292097, 0.206084071464534 ]}, {"sx":1, "sy":1, "depth":20, "w":[ 0.151533391517196, 0.0344959871661999, 0.21985888429799, 0.210775609248694, -0.0382129055588659, -0.486225294689331, 0.0490238127745473, -0.0038596237217512, 0.0917037505344751, -0.111867625731693, -0.0425344259650109, 0.444623040114325, 0.141221907938341, -0.452615839022131, 0.152251125437622, -0.129069926728258, -0.277625455074812, -0.513517190073777, -0.0797330656818502, -0.100417877903137 ]}, {"sx":1, "sy":1, "depth":20, "w":[ 0.210653544668195, 0.342281796445146, 0.134758005238604, -0.38031554817634, -0.0890056482882962, -0.104832988363145, 0.18119966960757, -0.304832474017316, 0.277447224752343, -0.192354588995949, -0.535824064967445, 0.316276730291592, 0.250703429025745, 0.036773164283418, 0.395458099626956, -0.0784698583219579, 0.0552173999453314, 0.439965083859855, 0.275132741963462, 0.288090538112644 ]}, {"sx":1, "sy":1, "depth":20, "w":[ 0.336613908483098, 0.0512354026193767, 0.506489990922028, -0.0916274039049218, 0.0199756517426685, -0.677349691589607, -0.12706563112728, 0.0649496147727528, 0.203646709088818, 0.191610992198365, 0.291899758654227, 0.0665529924962182, -0.175228595273667, -0.0480043437018156, -0.0855249062256661, -0.047438073483993, -0.0235528205871096, -0.206794896204733, 0.246897176990325, -0.362159252453996 ]}, {"sx":1, "sy":1, "depth":20, "w":[ 0.00436673137333814, 0.129838271954025, 0.254529105711124, 0.0714758832067254, -0.165726152385325, -0.444830538047862, -0.150372909889115, 0.00807777647289183, 0.155775293224152, 0.140062154179265, 0.174441310908789, 0.00940028178054055, 0.144757013939674, -0.297536746234434, -0.209994516038623, 0.0154881540348554, 0.126788863607955, -0.0819387649106622, 0.171144007256816, 0.121797007885716 ]}, {"sx":1, "sy":1, "depth":20, "w":[ 0.036514665588905, 0.557911145026327, -0.398710090964105, 0.290710242933023, 0.05455474600726, 0.183277468643377, 0.386492772955638, 0.85376258714141, -0.746488016485004, -0.443375365093972, 0.13882064798045, 0.0806611563423098, 1.28544739404127, -1.16525565292476, -0.0344826505626891, -0.0298373919971699, 0.450486530271944, -0.0975451109238458, -1.31517147838212, -0.118514157961851 ]}, {"sx":1, "sy":1, "depth":20, "w":[ 0.221984207847688, 0.443189042040176, -0.279446667969689, -0.124344166510968, 0.392049598189528, 0.163378968782174, -0.279690830385417, 0.153025733954228, 0.0352209125493964, -0.176940940799947, 0.217573428842303, -0.0852925265417922, 0.0430439533041625, 0.112015521274662, 0.249840958187588, -0.033695677371854, 0.356519662903844, 0.240006429566964, 0.0675216784393445, 0.0460855478095077 ]}, {"sx":1, "sy":1, "depth":20, "w":[ 0.111589120629445, 0.448100555036241, -0.350117403868466, -0.675878817242412, 0.234429799022553, 0.304912130940851, 0.0766063275717482, 0.691023365975412, -0.48372772628293, -0.466890862586096, 0.0132400443552214, 0.116294559549652, 0.454992882548634, -0.592096385602609, 0.0298235298576578, -0.154385345656279, 0.0325648563987474, 0.321868198696932, -0.945289326413092, 0.197884380418186 ]} ], "biases":{"sx":1, "sy":1, "depth":20, "w":[ 0.321318342979519, 0.169794418971812, 0.258253073253339, 0.25517544643747, 0.147999935630651, 0.0129159640043132, 0.173493782178725, -0.0148852742445243, 0.309908053782423, 0.159597803099225, 0.0939734074140973, 0.0434488281075045, 0.320489784978124, 0.0132945959857421, 0.154968189732876, 0.188058573191789, 0.116003665599692, 0.0337806822295141, 0.200725825896329, 0.156017459828585 ]}}, {"layer_type":"relu", "out_depth":20, "out_sx":1, "out_sy":1}, {"layer_type":"fc", "out_depth":3, "out_sx":1, "out_sy":1, "num_inputs":20, "l1_decay_mul":0, "l2_decay_mul":1, "filters":[ {"sx":1, "sy":1, "depth":20, "w":[ 0.48129366530602, 0.0908157190282974, 0.601492602148712, 0.630504737238568, 0.850636064655957, -0.205360516543139, -0.310297131535226, -0.274228629374754, 0.374287803671201, -0.504218022113956, 0.0694908715924016, -0.0767002753060569, 1.15995839333128, -0.584933165066682, 0.103823907090284, 0.30319388718369, -0.244217133165391, 1.52103949986918, 0.301686067121133, 0.567898204617192 ]}, {"sx":1, "sy":1, "depth":20, "w":[ 0.321264834948983, 0.00673594294818348, 0.803991988793955, 0.544227771198511, 0.39192975060563, -0.0584422030846877, 0.0612076424496096, -0.582035272446891, 0.470727403117065, -0.597176362772627, 0.010915132185153, -0.0843414915926343, 1.18396821664206, 0.287012900222015, -0.181659314618055, -0.279539328609513, 0.135353434984973, 1.5704592976688, 0.385271751416655, 0.929093429766212 ]}, {"sx":1, "sy":1, "depth":20, "w":[ 0.275128222578687, 0.286420189469566, 0.359187938279773, 1.17578102854389, 0.496551581683221, -0.618987399142403, 0.451883328988556, -0.510356311815461, 0.500072591313327, -0.0327792684156596, 0.144015336465994, -0.0728678503965978, 0.940498574074491, 0.0531392787935091, 0.304844582018985, 0.442912136860452, -0.331771241203556, 1.03423910060534, -0.0310777643565781, 1.03645370483146 ]} ], "biases":{"sx":1, "sy":1, "depth":3, "w":[ 0.19982147114837, 0.292367495894221, 0.23780667074234 ]}}, {"layer_type":"regression", "out_depth":3, "out_sx":1, "out_sy":1, "num_inputs":3} ], "trainer":{"learning_rate":0.0002, "momentum":0, "batch_size":1, "l2_decay":2E-05}}